<?xml version="1.0"?>
<MethodSetup Method="MLP::MLP">
  <GeneralInfo>
    <Info name="TMVA Release" value="4.2.1 [262657]"/>
    <Info name="ROOT Release" value="6.24/02 [399362]"/>
    <Info name="Creator" value="giacomo"/>
    <Info name="Date" value="Sun Nov 21 18:19:41 2021"/>
    <Info name="Host" value="Linux root-ubuntu-2004-1 5.4.0-73-generic #82-Ubuntu SMP Wed Apr 14 17:39:42 UTC 2021 x86_64 x86_64 x86_64 GNU/Linux"/>
    <Info name="Dir" value="/home/giacomo/Scrivania/provadsfa/SC_project"/>
    <Info name="Training events" value="36777"/>
    <Info name="TrainingTime" value="9.01083050e+01"/>
    <Info name="AnalysisType" value="Classification"/>
  </GeneralInfo>
  <Options>
    <Option name="NCycles" modified="Yes">600</Option>
    <Option name="HiddenLayers" modified="Yes">N+5</Option>
    <Option name="NeuronType" modified="Yes">tanh</Option>
    <Option name="RandomSeed" modified="No">1</Option>
    <Option name="EstimatorType" modified="No">CE</Option>
    <Option name="NeuronInputType" modified="No">sum</Option>
    <Option name="V" modified="Yes">False</Option>
    <Option name="VerbosityLevel" modified="No">Default</Option>
    <Option name="VarTransform" modified="Yes">N</Option>
    <Option name="H" modified="Yes">True</Option>
    <Option name="CreateMVAPdfs" modified="No">False</Option>
    <Option name="IgnoreNegWeightsInTraining" modified="No">False</Option>
    <Option name="TrainingMethod" modified="No">BP</Option>
    <Option name="LearningRate" modified="No">2.000000e-02</Option>
    <Option name="DecayRate" modified="No">1.000000e-02</Option>
    <Option name="TestRate" modified="Yes">5</Option>
    <Option name="EpochMonitoring" modified="No">False</Option>
    <Option name="Sampling" modified="No">1.000000e+00</Option>
    <Option name="SamplingEpoch" modified="No">1.000000e+00</Option>
    <Option name="SamplingImportance" modified="No">1.000000e+00</Option>
    <Option name="SamplingTraining" modified="No">True</Option>
    <Option name="SamplingTesting" modified="No">False</Option>
    <Option name="ResetStep" modified="No">50</Option>
    <Option name="Tau" modified="No">3.000000e+00</Option>
    <Option name="BPMode" modified="No">sequential</Option>
    <Option name="BatchSize" modified="No">-1</Option>
    <Option name="ConvergenceImprove" modified="No">1.000000e-30</Option>
    <Option name="ConvergenceTests" modified="No">-1</Option>
    <Option name="UseRegulator" modified="Yes">False</Option>
    <Option name="UpdateLimit" modified="No">10000</Option>
    <Option name="CalculateErrors" modified="No">False</Option>
    <Option name="WeightRange" modified="No">1.000000e+00</Option>
  </Options>
  <Variables NVar="9">
    <Variable VarIndex="0" Expression="nLep_base" Label="nLep_base" Title="nLep_base" Unit="" Internal="nLep_base" Type="F" Min="1.00000000e+00" Max="2.00000000e+00"/>
    <Variable VarIndex="1" Expression="nLep_signal" Label="nLep_signal" Title="nLep_signal" Unit="" Internal="nLep_signal" Type="F" Min="1.00000000e+00" Max="2.00000000e+00"/>
    <Variable VarIndex="2" Expression="lep1Pt" Label="lep1Pt" Title="lep1Pt" Unit="" Internal="lep1Pt" Type="F" Min="6.00310230e+00" Max="1.72962134e+03"/>
    <Variable VarIndex="3" Expression="nJet30" Label="nJet30" Title="nJet30" Unit="" Internal="nJet30" Type="F" Min="1.00000000e+00" Max="1.00000000e+01"/>
    <Variable VarIndex="4" Expression="nBJet30_DL1" Label="nBJet30_DL1" Title="nBJet30_DL1" Unit="" Internal="nBJet30_DL1" Type="F" Min="0.00000000e+00" Max="3.00000000e+00"/>
    <Variable VarIndex="5" Expression="met" Label="met" Title="met" Unit="" Internal="met" Type="F" Min="1.00002190e+02" Max="1.55581262e+03"/>
    <Variable VarIndex="6" Expression="met_Phi" Label="met_Phi" Title="met_Phi" Unit="" Internal="met_Phi" Type="F" Min="-3.14136314e+00" Max="3.14143801e+00"/>
    <Variable VarIndex="7" Expression="nFatjets" Label="nFatjets" Title="nFatjets" Unit="" Internal="nFatjets" Type="F" Min="0.00000000e+00" Max="4.00000000e+00"/>
    <Variable VarIndex="8" Expression="mt" Label="mt" Title="mt" Unit="" Internal="mt" Type="F" Min="5.00045738e+01" Max="3.25395923e+03"/>
  </Variables>
  <Spectators NSpec="0"/>
  <Classes NClass="2">
    <Class Name="Signal" Index="0"/>
    <Class Name="Background" Index="1"/>
  </Classes>
  <Transformations NTransformations="1">
    <Transform Name="Normalize">
      <Selection>
        <Input NInputs="9">
          <Input Type="Variable" Label="nLep_base" Expression="nLep_base"/>
          <Input Type="Variable" Label="nLep_signal" Expression="nLep_signal"/>
          <Input Type="Variable" Label="lep1Pt" Expression="lep1Pt"/>
          <Input Type="Variable" Label="nJet30" Expression="nJet30"/>
          <Input Type="Variable" Label="nBJet30_DL1" Expression="nBJet30_DL1"/>
          <Input Type="Variable" Label="met" Expression="met"/>
          <Input Type="Variable" Label="met_Phi" Expression="met_Phi"/>
          <Input Type="Variable" Label="nFatjets" Expression="nFatjets"/>
          <Input Type="Variable" Label="mt" Expression="mt"/>
        </Input>
        <Output NOutputs="9">
          <Output Type="Variable" Label="nLep_base" Expression="nLep_base"/>
          <Output Type="Variable" Label="nLep_signal" Expression="nLep_signal"/>
          <Output Type="Variable" Label="lep1Pt" Expression="lep1Pt"/>
          <Output Type="Variable" Label="nJet30" Expression="nJet30"/>
          <Output Type="Variable" Label="nBJet30_DL1" Expression="nBJet30_DL1"/>
          <Output Type="Variable" Label="met" Expression="met"/>
          <Output Type="Variable" Label="met_Phi" Expression="met_Phi"/>
          <Output Type="Variable" Label="nFatjets" Expression="nFatjets"/>
          <Output Type="Variable" Label="mt" Expression="mt"/>
        </Output>
      </Selection>
      <Class ClassIndex="0">
        <Ranges>
          <Range Index="0" Min="1.0000000000000000e+00" Max="2.0000000000000000e+00"/>
          <Range Index="1" Min="1.0000000000000000e+00" Max="2.0000000000000000e+00"/>
          <Range Index="2" Min="6.0584444999694824e+00" Max="9.1125897216796875e+02"/>
          <Range Index="3" Min="1.0000000000000000e+00" Max="9.0000000000000000e+00"/>
          <Range Index="4" Min="0.0000000000000000e+00" Max="3.0000000000000000e+00"/>
          <Range Index="5" Min="1.0001751708984375e+02" Max="1.1520876464843750e+03"/>
          <Range Index="6" Min="-3.1412866115570068e+00" Max="3.1406843662261963e+00"/>
          <Range Index="7" Min="0.0000000000000000e+00" Max="3.0000000000000000e+00"/>
          <Range Index="8" Min="5.0049491882324219e+01" Max="1.7437675781250000e+03"/>
        </Ranges>
      </Class>
      <Class ClassIndex="1">
        <Ranges>
          <Range Index="0" Min="1.0000000000000000e+00" Max="2.0000000000000000e+00"/>
          <Range Index="1" Min="1.0000000000000000e+00" Max="2.0000000000000000e+00"/>
          <Range Index="2" Min="6.0031023025512695e+00" Max="1.7296213378906250e+03"/>
          <Range Index="3" Min="1.0000000000000000e+00" Max="1.0000000000000000e+01"/>
          <Range Index="4" Min="0.0000000000000000e+00" Max="3.0000000000000000e+00"/>
          <Range Index="5" Min="1.0000218963623047e+02" Max="1.5558126220703125e+03"/>
          <Range Index="6" Min="-3.1413631439208984e+00" Max="3.1414380073547363e+00"/>
          <Range Index="7" Min="0.0000000000000000e+00" Max="4.0000000000000000e+00"/>
          <Range Index="8" Min="5.0004573822021484e+01" Max="3.2539592285156250e+03"/>
        </Ranges>
      </Class>
      <Class ClassIndex="2">
        <Ranges>
          <Range Index="0" Min="1.0000000000000000e+00" Max="2.0000000000000000e+00"/>
          <Range Index="1" Min="1.0000000000000000e+00" Max="2.0000000000000000e+00"/>
          <Range Index="2" Min="6.0031023025512695e+00" Max="1.7296213378906250e+03"/>
          <Range Index="3" Min="1.0000000000000000e+00" Max="1.0000000000000000e+01"/>
          <Range Index="4" Min="0.0000000000000000e+00" Max="3.0000000000000000e+00"/>
          <Range Index="5" Min="1.0000218963623047e+02" Max="1.5558126220703125e+03"/>
          <Range Index="6" Min="-3.1413631439208984e+00" Max="3.1414380073547363e+00"/>
          <Range Index="7" Min="0.0000000000000000e+00" Max="4.0000000000000000e+00"/>
          <Range Index="8" Min="5.0004573822021484e+01" Max="3.2539592285156250e+03"/>
        </Ranges>
      </Class>
    </Transform>
  </Transformations>
  <MVAPdfs/>
  <Weights>
    <Layout NLayers="3">
      <Layer Index="0" NNeurons="10">
        <Neuron NSynapses="14">
          -1.5106959182214277e+00 5.3053444109423680e+00 3.0329576779558409e-01 1.0168893306456783e+00 -2.9157751682064807e+00 -8.0602320462139010e-01 -2.4177506784859662e-01 4.0972655822760101e-01 -6.0349651827919337e-01 -1.3075378637828936e-01 -2.0041804493511965e+00 -2.2298297664542072e-01 -2.9269222201509787e-01 -1.8830428259777296e-01 
        </Neuron>
        <Neuron NSynapses="14">
          -1.0571957554787879e+00 3.7948374356161461e+00 2.6275683527499505e-01 3.1645408297816338e+00 -7.3904309960278747e-01 2.1010510121748625e+00 -2.6441704479968684e+00 1.2432954197788379e-01 5.8603440684000541e-01 2.5670298821326371e-01 -1.9740096683590354e+00 -2.3422443574456275e-02 3.8505969407679536e-01 -4.3073189264179024e-01 
        </Neuron>
        <Neuron NSynapses="14">
          -3.3965861381727493e+00 -6.1118585742100091e+00 2.2918292589615152e+00 2.0718455186560725e+00 1.5283373944500886e-01 -1.2783681235485094e+00 2.2322661815547398e+00 -5.8703584693183712e+00 -1.2040058573349237e+00 3.7234270344082407e+00 -2.8087043344490352e+00 1.0172305120565766e+00 1.5397833778034946e+00 1.1360854901945387e+00 
        </Neuron>
        <Neuron NSynapses="14">
          1.7608729329263457e+00 -5.2478301703329233e-01 -9.1695984840169964e-01 -1.5552243663112759e+00 7.3252002391049309e-01 5.8841265267187706e-02 3.2765849214892859e+00 -2.3606776745525790e-02 2.3034287504322011e+00 1.3270043032481924e+00 -2.8134753260395173e-01 1.5699757718725149e+00 -3.4419669085211928e+00 -4.1192361171725705e-01 
        </Neuron>
        <Neuron NSynapses="14">
          -1.1160133687078910e+00 -3.8822525159121019e-01 -3.5856213086640160e-01 1.2039952380243317e+00 -4.3544465314070981e+00 -1.9260394626687444e-01 1.2617704945042969e+00 2.5218586127313886e-01 2.0916616144395554e+00 4.3949289174936296e-01 -9.2095617112457639e-01 -7.7389274032786615e-01 2.8835617821685645e-03 -6.1217631025815633e-01 
        </Neuron>
        <Neuron NSynapses="14">
          -2.9210995485908091e+00 -6.3771306490958501e+00 -8.6696589506456530e+00 5.6103627340017781e-01 2.4003432050302718e+00 -5.3893207687859290e-01 -3.7850081354201603e+00 -5.2844709007209074e+00 1.5156546984507560e-01 2.1437414254305051e-01 4.5343138162479457e+00 5.8943613336811196e-01 -2.0362489007192119e-01 -4.0381830600937474e-01 
        </Neuron>
        <Neuron NSynapses="14">
          -5.5442943947504271e-02 -1.9322849096567476e-02 -2.7618575371264699e-02 -7.8897953809976140e-01 -1.6566307982928755e-01 -1.5034345159342444e-01 1.8200999609802920e-01 7.5802790902094255e-02 -8.1891270865083365e-01 -1.3076191637706412e-03 -2.1207769715049599e-01 1.4148491473721547e+00 -8.5194558181745511e-02 -1.4681481437334063e+00 
        </Neuron>
        <Neuron NSynapses="14">
          -1.4464620337170037e-01 -4.7592157238943483e-01 -2.6724806299552193e+00 -1.7144867574682880e+00 1.2736901912135450e+00 2.3481324732019973e+00 -7.4695937125496759e-01 5.4332209872778525e-01 -9.2963820069109471e-01 -5.2314983393374070e-01 2.4705604271473409e+00 6.5535647431327315e-01 -2.8799214930625472e-01 7.9962755114892181e-01 
        </Neuron>
        <Neuron NSynapses="14">
          5.6772402764103425e-01 1.6691148171296009e+00 1.5074937616897857e+00 1.7321008209288733e+00 1.0353190901519187e-01 3.0572835059941622e-01 -1.2302771313301013e+00 -3.3310952534785301e+00 -2.7410117951847015e+00 1.4485168717636663e+00 -5.3538409587745628e+00 1.7339141600177070e+00 1.6959592405809714e+00 1.9417578990693143e-01 
        </Neuron>
        <Neuron NSynapses="14">
          -1.5052438186301511e+00 -2.8152455364685744e+00 -9.0150163477001097e+00 9.5460616763426309e-01 1.7424012074436160e-01 -1.6898864926236412e+00 -1.4031047074044427e+00 -1.3512987005792054e+01 3.2393923105662198e-01 4.9433449082978189e+00 1.4063258226164121e+00 -2.3838049431537094e+00 1.1401402886158176e+00 9.2824225610883770e-01 
        </Neuron>
      </Layer>
      <Layer Index="1" NNeurons="15">
        <Neuron NSynapses="1">
          6.6624298170035534e-01 
        </Neuron>
        <Neuron NSynapses="1">
          -1.5920934663357813e+00 
        </Neuron>
        <Neuron NSynapses="1">
          -1.4452296586468041e+00 
        </Neuron>
        <Neuron NSynapses="1">
          -6.5369251391511862e-01 
        </Neuron>
        <Neuron NSynapses="1">
          -1.3704459217286689e+00 
        </Neuron>
        <Neuron NSynapses="1">
          1.3004314948666369e+00 
        </Neuron>
        <Neuron NSynapses="1">
          7.6141639218204482e-01 
        </Neuron>
        <Neuron NSynapses="1">
          -1.7872938805022158e+00 
        </Neuron>
        <Neuron NSynapses="1">
          3.5084307631854267e-01 
        </Neuron>
        <Neuron NSynapses="1">
          -7.4875325309396434e-01 
        </Neuron>
        <Neuron NSynapses="1">
          -1.5726808316384762e+00 
        </Neuron>
        <Neuron NSynapses="1">
          7.2600692114682608e-01 
        </Neuron>
        <Neuron NSynapses="1">
          1.0030597907816268e+00 
        </Neuron>
        <Neuron NSynapses="1">
          -1.8009442702531384e-01 
        </Neuron>
        <Neuron NSynapses="1">
          -1.3176454813528784e+00 
        </Neuron>
      </Layer>
      <Layer Index="2" NNeurons="1">
        <Neuron NSynapses="0"/>
      </Layer>
    </Layout>
  </Weights>
</MethodSetup>
